<?xml version="1.0"?>
<opencv_storage>
<cascade>
  <stageType>BOOST</stageType>
  <featureType>HAAR</featureType>
  <height>24</height>
  <width>24</width>
  <stageParams>
    <boostType>GAB</boostType>
    <minHitRate>9.9900001287460327e-01</minHitRate>
    <maxFalseAlarm>3.0000001192092896e-01</maxFalseAlarm>
    <weightTrimRate>9.4999999999999996e-01</weightTrimRate>
    <maxDepth>1</maxDepth>
    <maxWeakCount>100</maxWeakCount></stageParams>
  <featureParams>
    <maxCatCount>0</maxCatCount>
    <featSize>1</featSize>
    <mode>BASIC</mode></featureParams>
  <stageNum>12</stageNum>
  <stages>
    <!-- stage 0 -->
    <_>
      <maxWeakCount>3</maxWeakCount>
      <stageThreshold>-1.1823076009750366e+00</stageThreshold>
      <weakClassifiers>
        <_>
          <internalNodes>
            0 -1 0 -3.0234384536743164e-01</internalNodes>
          <leafValues>
            -9.4916909933090210e-01 9.4782608747482300e-01</leafValues></_>
        <_>
          <internalNodes>
            0 -1 44 -3.9134375751018524e-02</internalNodes>
          <leafValues>
            -9.0508401393890381e-01 7.1735948324203491e-01</leafValues></_>
        <_>
          <internalNodes>
            0 -1 4 -2.9431117698550224e-02</internalNodes>
          <leafValues>
            6.7194557189941406e-01 -8.3857083320617676e-01</leafValues></_></weakClassifiers></_>
    <!-- stage 1 -->
    <_>
      <maxWeakCount>7</maxWeakCount>
      <stageThreshold>-1.9578180313110352e+00</stageThreshold>
      <weakClassifiers>
        <_>
          <internalNodes>
            0 -1 28 -1.1922490596771240e-01</internalNodes>
          <leafValues>
            -9.0135395526885986e-01 6.7307692766189575e-01</leafValues></_>
        <_>
          <internalNodes>
            0 -1 66 -3.0377195216715336e-03</internalNodes>
          <leafValues>
            2.0653022825717926e-01 -8.5584485530853271e-01</leafValues></_>
        <_>
          <internalNodes>
            0 -1 64 -8.9001618325710297e-03</internalNodes>
          <leafValues>
            -6.7158573865890503e-01 4.7435706853866577e-01</leafValues></_>
        <_>
          <internalNodes>
            0 -1 67 -1.4760601334273815e-03</internalNodes>
          <leafValues>
            4.0167778730392456e-01 -6.1083149909973145e-01</leafValues></_>
        <_>
          <internalNodes>
            0 -1 34 2.6999777182936668e-03</internalNodes>
          <leafValues>
            -5.8073264360427856e-01 4.7143226861953735e-01</leafValues></_>
        <_>
          <internalNodes>
            0 -1 71 -1.9497899338603020e-03</internalNodes>
          <leafValues>
            4.0883857011795044e-01 -7.1104359626770020e-01</leafValues></_>
        <_>
          <internalNodes>
            0 -1 57 -5.0783604383468628e-03</internalNodes>
          <leafValues>
            -9.4953364133834839e-01 2.4118280410766602e-01</leafValues></_></weakClassifiers></_>
    <!-- stage 2 -->
    <_>
      <maxWeakCount>6</maxWeakCount>
      <stageThreshold>-2.0302245616912842e+00</stageThreshold>
      <weakClassifiers>
        <_>
          <internalNodes>
            0 -1 19 -3.1370192766189575e-01</internalNodes>
          <leafValues>
            5.2577316761016846e-01 -8.7704128026962280e-01</leafValues></_>
        <_>
          <internalNodes>
            0 -1 30 4.6858388930559158e-02</internalNodes>
          <leafValues>
            -6.6023492813110352e-01 6.8878030776977539e-01</leafValues></_>
        <_>
          <internalNodes>
            0 -1 26 -4.6334367245435715e-02</internalNodes>
          <leafValues>
            -9.2854243516921997e-01 2.3779751360416412e-01</leafValues></_>
        <_>
          <internalNodes>
            0 -1 65 -2.7264424716122448e-04</internalNodes>
          <leafValues>
            3.9404505491256714e-01 -6.2569743394851685e-01</leafValues></_>
        <_>
          <internalNodes>
            0 -1 56 -6.4494563266634941e-03</internalNodes>
          <leafValues>
            3.6841419339179993e-01 -5.9371107816696167e-01</leafValues></_>
        <_>
          <internalNodes>
            0 -1 80 -6.7365283030085266e-05</internalNodes>
          <leafValues>
            3.7783008813858032e-01 -5.3107976913452148e-01</leafValues></_></weakClassifiers></_>
    <!-- stage 3 -->
    <_>
      <maxWeakCount>4</maxWeakCount>
      <stageThreshold>-1.5225608348846436e+00</stageThreshold>
      <weakClassifiers>
        <_>
          <internalNodes>
            0 -1 25 -1.7043314874172211e-01</internalNodes>
          <leafValues>
            6.3829785585403442e-01 -8.8314175605773926e-01</leafValues></_>
        <_>
          <internalNodes>
            0 -1 20 1.8144959583878517e-02</internalNodes>
          <leafValues>
            -6.8215447664260864e-01 5.4614371061325073e-01</leafValues></_>
        <_>
          <internalNodes>
            0 -1 55 -1.0210620611906052e-01</internalNodes>
          <leafValues>
            4.4958475232124329e-01 -6.7587018013000488e-01</leafValues></_>
        <_>
          <internalNodes>
            0 -1 61 -1.1098727583885193e-01</internalNodes>
          <leafValues>
            7.1860563755035400e-01 -3.5128560662269592e-01</leafValues></_></weakClassifiers></_>
    <!-- stage 4 -->
    <_>
      <maxWeakCount>8</maxWeakCount>
      <stageThreshold>-1.6212601661682129e+00</stageThreshold>
      <weakClassifiers>
        <_>
          <internalNodes>
            0 -1 12 3.0709840357303619e-02</internalNodes>
          <leafValues>
            -8.4995251893997192e-01 3.8823530077934265e-01</leafValues></_>
        <_>
          <internalNodes>
            0 -1 79 2.4426402524113655e-02</internalNodes>
          <leafValues>
            -7.2691255807876587e-01 3.2896855473518372e-01</leafValues></_>
        <_>
          <internalNodes>
            0 -1 8 -2.3818168789148331e-02</internalNodes>
          <leafValues>
            5.9887605905532837e-01 -3.7486225366592407e-01</leafValues></_>
        <_>
          <internalNodes>
            0 -1 21 1.0880528017878532e-02</internalNodes>
          <leafValues>
            -4.7268491983413696e-01 4.6064758300781250e-01</leafValues></_>
        <_>
          <internalNodes>
            0 -1 50 4.7907652333378792e-03</internalNodes>
          <leafValues>
            2.2498448193073273e-01 -8.9476692676544189e-01</leafValues></_>
        <_>
          <internalNodes>
            0 -1 45 -3.9431569166481495e-03</internalNodes>
          <leafValues>
            -8.6656582355499268e-01 2.0739136636257172e-01</leafValues></_>
        <_>
          <internalNodes>
            0 -1 78 -1.2213851732667536e-04</internalNodes>
          <leafValues>
            -6.7267334461212158e-01 2.2550515830516815e-01</leafValues></_>
        <_>
          <internalNodes>
            0 -1 10 -1.3191751204431057e-03</internalNodes>
          <leafValues>
            -9.2463952302932739e-01 1.6334712505340576e-01</leafValues></_></weakClassifiers></_>
    <!-- stage 5 -->
    <_>
      <maxWeakCount>5</maxWeakCount>
      <stageThreshold>-1.2719956636428833e+00</stageThreshold>
      <weakClassifiers>
        <_>
          <internalNodes>
            0 -1 24 -1.3105013966560364e-01</internalNodes>
          <leafValues>
            4.5614033937454224e-01 -8.9257812500000000e-01</leafValues></_>
        <_>
          <internalNodes>
            0 -1 37 -1.1817964911460876e-01</internalNodes>
          <leafValues>
            -7.0923477411270142e-02 -9.2957550287246704e-01</leafValues></_>
        <_>
          <internalNodes>
            0 -1 11 4.8732474446296692e-02</internalNodes>
          <leafValues>
            -4.6570116281509399e-01 4.1299381852149963e-01</leafValues></_>
        <_>
          <internalNodes>
            0 -1 38 1.0733306407928467e-03</internalNodes>
          <leafValues>
            1.8024671077728271e-01 -9.8793470859527588e-01</leafValues></_>
        <_>
          <internalNodes>
            0 -1 2 3.2634887611493468e-04</internalNodes>
          <leafValues>
            1.8583756685256958e-01 -9.0173459053039551e-01</leafValues></_></weakClassifiers></_>
    <!-- stage 6 -->
    <_>
      <maxWeakCount>7</maxWeakCount>
      <stageThreshold>-1.5401519536972046e+00</stageThreshold>
      <weakClassifiers>
        <_>
          <internalNodes>
            0 -1 47 -2.4311419576406479e-02</internalNodes>
          <leafValues>
            2.0930232107639313e-01 -8.3650189638137817e-01</leafValues></_>
        <_>
          <internalNodes>
            0 -1 74 -3.3979985164478421e-04</internalNodes>
          <leafValues>
            1.2961377203464508e-01 -7.8952866792678833e-01</leafValues></_>
        <_>
          <internalNodes>
            0 -1 6 -2.2463658824563026e-02</internalNodes>
          <leafValues>
            3.7731653451919556e-01 -5.2347368001937866e-01</leafValues></_>
        <_>
          <internalNodes>
            0 -1 36 2.4845018051564693e-03</internalNodes>
          <leafValues>
            -4.7222712635993958e-01 3.4216791391372681e-01</leafValues></_>
        <_>
          <internalNodes>
            0 -1 90 2.7716457843780518e-03</internalNodes>
          <leafValues>
            -3.2996910810470581e-01 5.0249326229095459e-01</leafValues></_>
        <_>
          <internalNodes>
            0 -1 46 -4.9315206706523895e-03</internalNodes>
          <leafValues>
            -6.7253053188323975e-01 3.1429651379585266e-01</leafValues></_>
        <_>
          <internalNodes>
            0 -1 68 6.8651018664240837e-03</internalNodes>
          <leafValues>
            -5.0222641229629517e-01 3.5082647204399109e-01</leafValues></_></weakClassifiers></_>
    <!-- stage 7 -->
    <_>
      <maxWeakCount>8</maxWeakCount>
      <stageThreshold>-1.2791128158569336e+00</stageThreshold>
      <weakClassifiers>
        <_>
          <internalNodes>
            0 -1 40 -4.8360186815261841e-01</internalNodes>
          <leafValues>
            5.0000000000000000e-01 -8.0327868461608887e-01</leafValues></_>
        <_>
          <internalNodes>
            0 -1 14 2.4875344708561897e-02</internalNodes>
          <leafValues>
            -5.6108117103576660e-01 5.4235917329788208e-01</leafValues></_>
        <_>
          <internalNodes>
            0 -1 15 -1.2965128917130642e-05</internalNodes>
          <leafValues>
            2.8365993499755859e-01 -5.6995087862014771e-01</leafValues></_>
        <_>
          <internalNodes>
            0 -1 5 2.9035401530563831e-03</internalNodes>
          <leafValues>
            1.9426423311233521e-01 -7.6684421300888062e-01</leafValues></_>
        <_>
          <internalNodes>
            0 -1 54 -1.5111906453967094e-02</internalNodes>
          <leafValues>
            4.9225175380706787e-01 -2.8605812788009644e-01</leafValues></_>
        <_>
          <internalNodes>
            0 -1 52 1.6277311369776726e-02</internalNodes>
          <leafValues>
            1.7725405097007751e-01 -8.2806324958801270e-01</leafValues></_>
        <_>
          <internalNodes>
            0 -1 48 -3.6065913736820221e-02</internalNodes>
          <leafValues>
            -9.4728225469589233e-01 1.5265022218227386e-01</leafValues></_>
        <_>
          <internalNodes>
            0 -1 82 3.1614340841770172e-02</internalNodes>
          <leafValues>
            -2.0951594412326813e-01 8.2033842802047729e-01</leafValues></_></weakClassifiers></_>
    <!-- stage 8 -->
    <_>
      <maxWeakCount>10</maxWeakCount>
      <stageThreshold>-1.4524136781692505e+00</stageThreshold>
      <weakClassifiers>
        <_>
          <internalNodes>
            0 -1 51 -3.9350914955139160e-01</internalNodes>
          <leafValues>
            6.1290323734283447e-01 -7.9584461450576782e-01</leafValues></_>
        <_>
          <internalNodes>
            0 -1 27 -3.4764662384986877e-02</internalNodes>
          <leafValues>
            2.9240840673446655e-01 -5.8644932508468628e-01</leafValues></_>
        <_>
          <internalNodes>
            0 -1 31 -1.2794544454663992e-03</internalNodes>
          <leafValues>
            3.1304359436035156e-01 -4.5206549763679504e-01</leafValues></_>
        <_>
          <internalNodes>
            0 -1 58 -1.0459762997925282e-02</internalNodes>
          <leafValues>
            3.1899574398994446e-01 -4.5995250344276428e-01</leafValues></_>
        <_>
          <internalNodes>
            0 -1 9 -1.0510140564292669e-03</internalNodes>
          <leafValues>
            -8.4872668981552124e-01 2.1552520990371704e-01</leafValues></_>
        <_>
          <internalNodes>
            0 -1 16 5.7920976541936398e-04</internalNodes>
          <leafValues>
            1.4507855474948883e-01 -6.9935691356658936e-01</leafValues></_>
        <_>
          <internalNodes>
            0 -1 85 1.3357767835259438e-02</internalNodes>
          <leafValues>
            -2.8674149513244629e-01 4.5927569270133972e-01</leafValues></_>
        <_>
          <internalNodes>
            0 -1 75 -3.4940335899591446e-03</internalNodes>
          <leafValues>
            5.1285684108734131e-01 -2.7502492070198059e-01</leafValues></_>
        <_>
          <internalNodes>
            0 -1 62 -6.7983102053403854e-03</internalNodes>
          <leafValues>
            -7.6247429847717285e-01 1.9884626567363739e-01</leafValues></_>
        <_>
          <internalNodes>
            0 -1 69 -3.5759684396907687e-04</internalNodes>
          <leafValues>
            2.5254431366920471e-01 -5.0462424755096436e-01</leafValues></_></weakClassifiers></_>
    <!-- stage 9 -->
    <_>
      <maxWeakCount>10</maxWeakCount>
      <stageThreshold>-1.2382329702377319e+00</stageThreshold>
      <weakClassifiers>
        <_>
          <internalNodes>
            0 -1 17 -5.3033125586807728e-03</internalNodes>
          <leafValues>
            -7.9147779941558838e-01 3.1428572535514832e-01</leafValues></_>
        <_>
          <internalNodes>
            0 -1 59 -1.0593828745186329e-02</internalNodes>
          <leafValues>
            1.6066132485866547e-01 -5.9413152933120728e-01</leafValues></_>
        <_>
          <internalNodes>
            0 -1 53 -9.5968396635726094e-04</internalNodes>
          <leafValues>
            -7.5146090984344482e-01 1.1073517799377441e-01</leafValues></_>
        <_>
          <internalNodes>
            0 -1 89 -1.2079805601388216e-03</internalNodes>
          <leafValues>
            -7.2651505470275879e-01 1.7225909233093262e-01</leafValues></_>
        <_>
          <internalNodes>
            0 -1 83 -5.1333312876522541e-03</internalNodes>
          <leafValues>
            3.9330735802650452e-01 -2.9978957772254944e-01</leafValues></_>
        <_>
          <internalNodes>
            0 -1 72 4.4854008592665195e-04</internalNodes>
          <leafValues>
            -3.8041394948959351e-01 3.4000539779663086e-01</leafValues></_>
        <_>
          <internalNodes>
            0 -1 35 1.4166820794343948e-02</internalNodes>
          <leafValues>
            -4.3573960661888123e-01 3.6407822370529175e-01</leafValues></_>
        <_>
          <internalNodes>
            0 -1 87 -1.1763362213969231e-02</internalNodes>
          <leafValues>
            -8.7232875823974609e-01 1.2514963746070862e-01</leafValues></_>
        <_>
          <internalNodes>
            0 -1 76 -6.9222145248204470e-04</internalNodes>
          <leafValues>
            2.1238964796066284e-01 -4.8956599831581116e-01</leafValues></_>
        <_>
          <internalNodes>
            0 -1 86 3.4998685121536255e-02</internalNodes>
          <leafValues>
            1.2804372608661652e-01 -8.8619112968444824e-01</leafValues></_></weakClassifiers></_>
    <!-- stage 10 -->
    <_>
      <maxWeakCount>10</maxWeakCount>
      <stageThreshold>-1.2222787141799927e+00</stageThreshold>
      <weakClassifiers>
        <_>
          <internalNodes>
            0 -1 43 -4.3270252645015717e-02</internalNodes>
          <leafValues>
            2.5000000372529030e-02 -8.1663513183593750e-01</leafValues></_>
        <_>
          <internalNodes>
            0 -1 3 -2.6115622371435165e-02</internalNodes>
          <leafValues>
            8.4328196942806244e-02 -5.6464600563049316e-01</leafValues></_>
        <_>
          <internalNodes>
            0 -1 33 -7.0540588349103928e-03</internalNodes>
          <leafValues>
            -7.9949790239334106e-01 1.0772978514432907e-01</leafValues></_>
        <_>
          <internalNodes>
            0 -1 39 2.4255819618701935e-02</internalNodes>
          <leafValues>
            2.0210641622543335e-01 -6.2780362367630005e-01</leafValues></_>
        <_>
          <internalNodes>
            0 -1 84 -2.0965580188203603e-04</internalNodes>
          <leafValues>
            -6.3361597061157227e-01 1.6882845759391785e-01</leafValues></_>
        <_>
          <internalNodes>
            0 -1 81 -1.5529064694419503e-03</internalNodes>
          <leafValues>
            2.6880154013633728e-01 -4.9271401762962341e-01</leafValues></_>
        <_>
          <internalNodes>
            0 -1 88 2.1932111121714115e-03</internalNodes>
          <leafValues>
            -2.5332951545715332e-01 5.3065371513366699e-01</leafValues></_>
        <_>
          <internalNodes>
            0 -1 41 -1.4348918199539185e-01</internalNodes>
          <leafValues>
            1.9116772711277008e-01 -6.7366588115692139e-01</leafValues></_>
        <_>
          <internalNodes>
            0 -1 49 2.5097239995375276e-04</internalNodes>
          <leafValues>
            -5.0361466407775879e-01 2.2466184198856354e-01</leafValues></_>
        <_>
          <internalNodes>
            0 -1 18 -2.0398184657096863e-02</internalNodes>
          <leafValues>
            -7.3250257968902588e-01 1.6958014667034149e-01</leafValues></_></weakClassifiers></_>
    <!-- stage 11 -->
    <_>
      <maxWeakCount>13</maxWeakCount>
      <stageThreshold>-1.3175431489944458e+00</stageThreshold>
      <weakClassifiers>
        <_>
          <internalNodes>
            0 -1 23 -6.0078099370002747e-02</internalNodes>
          <leafValues>
            -5.3365385532379150e-01 -8.8642656803131104e-01</leafValues></_>
        <_>
          <internalNodes>
            0 -1 63 -2.9306849464774132e-03</internalNodes>
          <leafValues>
            6.1029039323329926e-02 -5.5966657400131226e-01</leafValues></_>
        <_>
          <internalNodes>
            0 -1 32 1.0932919103652239e-03</internalNodes>
          <leafValues>
            -4.3108755350112915e-01 2.6924300193786621e-01</leafValues></_>
        <_>
          <internalNodes>
            0 -1 29 3.2590746879577637e-02</internalNodes>
          <leafValues>
            1.5191167593002319e-01 -7.4903601408004761e-01</leafValues></_>
        <_>
          <internalNodes>
            0 -1 70 4.2182933539152145e-03</internalNodes>
          <leafValues>
            1.4492231607437134e-01 -7.4840152263641357e-01</leafValues></_>
        <_>
          <internalNodes>
            0 -1 77 -4.8061674460768700e-03</internalNodes>
          <leafValues>
            -9.6682578325271606e-01 1.0274413228034973e-01</leafValues></_>
        <_>
          <internalNodes>
            0 -1 1 3.5418192856013775e-03</internalNodes>
          <leafValues>
            1.3130360841751099e-01 -6.4639627933502197e-01</leafValues></_>
        <_>
          <internalNodes>
            0 -1 73 -1.7333625582978129e-03</internalNodes>
          <leafValues>
            -7.1929448843002319e-01 1.2360217422246933e-01</leafValues></_>
        <_>
          <internalNodes>
            0 -1 60 5.3877634927630424e-03</internalNodes>
          <leafValues>
            -3.3832997083663940e-01 3.3523148298263550e-01</leafValues></_>
        <_>
          <internalNodes>
            0 -1 7 -2.2907746024429798e-03</internalNodes>
          <leafValues>
            -9.5712697505950928e-01 1.0296162962913513e-01</leafValues></_>
        <_>
          <internalNodes>
            0 -1 13 9.2470116214826703e-04</internalNodes>
          <leafValues>
            1.5153019130229950e-01 -5.5660760402679443e-01</leafValues></_>
        <_>
          <internalNodes>
            0 -1 42 1.0031156241893768e-01</internalNodes>
          <leafValues>
            -1.7306718230247498e-01 6.5419363975524902e-01</leafValues></_>
        <_>
          <internalNodes>
            0 -1 22 -9.5563702052459121e-04</internalNodes>
          <leafValues>
            3.6267611384391785e-01 -3.2833445072174072e-01</leafValues></_></weakClassifiers></_></stages>
  <features>
    <_>
      <rects>
        <_>
          0 0 24 4 -1.</_>
        <_>
          8 0 8 4 2.</_></rects>
      <tilted>0</tilted></_>
    <_>
      <rects>
        <_>
          0 1 1 10 -1.</_>
        <_>
          0 6 1 5 2.</_></rects>
      <tilted>0</tilted></_>
    <_>
      <rects>
        <_>
          0 3 2 1 -1.</_>
        <_>
          1 3 1 1 2.</_></rects>
      <tilted>0</tilted></_>
    <_>
      <rects>
        <_>
          0 5 6 18 -1.</_>
        <_>
          0 5 3 9 2.</_>
        <_>
          3 14 3 9 2.</_></rects>
      <tilted>0</tilted></_>
    <_>
      <rects>
        <_>
          0 6 8 16 -1.</_>
        <_>
          0 6 4 8 2.</_>
        <_>
          4 14 4 8 2.</_></rects>
      <tilted>0</tilted></_>
    <_>
      <rects>
        <_>
          0 8 24 2 -1.</_>
        <_>
          0 8 12 1 2.</_>
        <_>
          12 9 12 1 2.</_></rects>
      <tilted>0</tilted></_>
    <_>
      <rects>
        <_>
          0 9 8 14 -1.</_>
        <_>
          0 9 4 7 2.</_>
        <_>
          4 16 4 7 2.</_></rects>
      <tilted>0</tilted></_>
    <_>
      <rects>
        <_>
          0 13 4 2 -1.</_>
        <_>
          0 14 4 1 2.</_></rects>
      <tilted>0</tilted></_>
    <_>
      <rects>
        <_>
          0 15 6 9 -1.</_>
        <_>
          3 15 3 9 2.</_></rects>
      <tilted>0</tilted></_>
    <_>
      <rects>
        <_>
          0 19 1 4 -1.</_>
        <_>
          0 21 1 2 2.</_></rects>
      <tilted>0</tilted></_>
    <_>
      <rects>
        <_>
          0 22 6 2 -1.</_>
        <_>
          0 23 6 1 2.</_></rects>
      <tilted>0</tilted></_>
    <_>
      <rects>
        <_>
          1 0 23 8 -1.</_>
        <_>
          1 4 23 4 2.</_></rects>
      <tilted>0</tilted></_>
    <_>
      <rects>
        <_>
          1 5 4 12 -1.</_>
        <_>
          3 5 2 12 2.</_></rects>
      <tilted>0</tilted></_>
    <_>
      <rects>
        <_>
          1 9 18 2 -1.</_>
        <_>
          1 9 9 1 2.</_>
        <_>
          10 10 9 1 2.</_></rects>
      <tilted>0</tilted></_>
    <_>
      <rects>
        <_>
          1 12 6 8 -1.</_>
        <_>
          4 12 3 8 2.</_></rects>
      <tilted>0</tilted></_>
    <_>
      <rects>
        <_>
          1 20 2 1 -1.</_>
        <_>
          2 20 1 1 2.</_></rects>
      <tilted>0</tilted></_>
    <_>
      <rects>
        <_>
          2 0 4 1 -1.</_>
        <_>
          4 0 2 1 2.</_></rects>
      <tilted>0</tilted></_>
    <_>
      <rects>
        <_>
          2 1 1 21 -1.</_>
        <_>
          2 8 1 7 2.</_></rects>
      <tilted>0</tilted></_>
    <_>
      <rects>
        <_>
          2 6 20 10 -1.</_>
        <_>
          2 6 10 5 2.</_>
        <_>
          12 11 10 5 2.</_></rects>
      <tilted>0</tilted></_>
    <_>
      <rects>
        <_>
          2 10 20 14 -1.</_>
        <_>
          2 17 20 7 2.</_></rects>
      <tilted>0</tilted></_>
    <_>
      <rects>
        <_>
          3 0 14 4 -1.</_>
        <_>
          3 2 14 2 2.</_></rects>
      <tilted>0</tilted></_>
    <_>
      <rects>
        <_>
          3 2 6 8 -1.</_>
        <_>
          6 2 3 8 2.</_></rects>
      <tilted>0</tilted></_>
    <_>
      <rects>
        <_>
          3 3 10 2 -1.</_>
        <_>
          3 3 5 1 2.</_>
        <_>
          8 4 5 1 2.</_></rects>
      <tilted>0</tilted></_>
    <_>
      <rects>
        <_>
          3 14 8 10 -1.</_>
        <_>
          3 19 8 5 2.</_></rects>
      <tilted>0</tilted></_>
    <_>
      <rects>
        <_>
          3 14 14 10 -1.</_>
        <_>
          3 19 14 5 2.</_></rects>
      <tilted>0</tilted></_>
    <_>
      <rects>
        <_>
          3 14 19 10 -1.</_>
        <_>
          3 19 19 5 2.</_></rects>
      <tilted>0</tilted></_>
    <_>
      <rects>
        <_>
          3 17 12 1 -1.</_>
        <_>
          7 17 4 1 2.</_></rects>
      <tilted>0</tilted></_>
    <_>
      <rects>
        <_>
          3 18 12 6 -1.</_>
        <_>
          3 21 12 3 2.</_></rects>
      <tilted>0</tilted></_>
    <_>
      <rects>
        <_>
          3 20 19 3 -1.</_>
        <_>
          3 21 19 1 2.</_></rects>
      <tilted>0</tilted></_>
    <_>
      <rects>
        <_>
          4 0 16 4 -1.</_>
        <_>
          12 0 8 4 2.</_></rects>
      <tilted>0</tilted></_>
    <_>
      <rects>
        <_>
          4 0 17 6 -1.</_>
        <_>
          4 3 17 3 2.</_></rects>
      <tilted>0</tilted></_>
    <_>
      <rects>
        <_>
          4 2 4 8 -1.</_>
        <_>
          4 2 2 4 2.</_>
        <_>
          6 6 2 4 2.</_></rects>
      <tilted>0</tilted></_>
    <_>
      <rects>
        <_>
          4 3 2 5 -1.</_>
        <_>
          5 3 1 5 2.</_></rects>
      <tilted>0</tilted></_>
    <_>
      <rects>
        <_>
          4 14 16 4 -1.</_>
        <_>
          4 14 8 2 2.</_>
        <_>
          12 16 8 2 2.</_></rects>
      <tilted>0</tilted></_>
    <_>
      <rects>
        <_>
          5 0 4 12 -1.</_>
        <_>
          7 0 2 12 2.</_></rects>
      <tilted>0</tilted></_>
    <_>
      <rects>
        <_>
          5 0 10 14 -1.</_>
        <_>
          10 0 5 14 2.</_></rects>
      <tilted>0</tilted></_>
    <_>
      <rects>
        <_>
          5 1 6 5 -1.</_>
        <_>
          8 1 3 5 2.</_></rects>
      <tilted>0</tilted></_>
    <_>
      <rects>
        <_>
          5 5 9 6 -1.</_>
        <_>
          5 7 9 2 2.</_></rects>
      <tilted>0</tilted></_>
    <_>
      <rects>
        <_>
          5 7 1 4 -1.</_>
        <_>
          5 9 1 2 2.</_></rects>
      <tilted>0</tilted></_>
    <_>
      <rects>
        <_>
          5 8 14 14 -1.</_>
        <_>
          5 8 7 7 2.</_>
        <_>
          12 15 7 7 2.</_></rects>
      <tilted>0</tilted></_>
    <_>
      <rects>
        <_>
          6 4 13 20 -1.</_>
        <_>
          6 14 13 10 2.</_></rects>
      <tilted>0</tilted></_>
    <_>
      <rects>
        <_>
          6 12 15 5 -1.</_>
        <_>
          11 12 5 5 2.</_></rects>
      <tilted>0</tilted></_>
    <_>
      <rects>
        <_>
          6 16 18 7 -1.</_>
        <_>
          15 16 9 7 2.</_></rects>
      <tilted>0</tilted></_>
    <_>
      <rects>
        <_>
          6 20 13 4 -1.</_>
        <_>
          6 22 13 2 2.</_></rects>
      <tilted>0</tilted></_>
    <_>
      <rects>
        <_>
          6 21 12 1 -1.</_>
        <_>
          10 21 4 1 2.</_></rects>
      <tilted>0</tilted></_>
    <_>
      <rects>
        <_>
          7 7 12 4 -1.</_>
        <_>
          7 7 6 2 2.</_>
        <_>
          13 9 6 2 2.</_></rects>
      <tilted>0</tilted></_>
    <_>
      <rects>
        <_>
          7 9 8 8 -1.</_>
        <_>
          7 9 4 4 2.</_>
        <_>
          11 13 4 4 2.</_></rects>
      <tilted>0</tilted></_>
    <_>
      <rects>
        <_>
          7 20 8 4 -1.</_>
        <_>
          7 22 8 2 2.</_></rects>
      <tilted>0</tilted></_>
    <_>
      <rects>
        <_>
          8 0 8 24 -1.</_>
        <_>
          8 0 4 12 2.</_>
        <_>
          12 12 4 12 2.</_></rects>
      <tilted>0</tilted></_>
    <_>
      <rects>
        <_>
          8 1 1 4 -1.</_>
        <_>
          8 3 1 2 2.</_></rects>
      <tilted>0</tilted></_>
    <_>
      <rects>
        <_>
          8 6 10 4 -1.</_>
        <_>
          8 6 5 2 2.</_>
        <_>
          13 8 5 2 2.</_></rects>
      <tilted>0</tilted></_>
    <_>
      <rects>
        <_>
          8 6 11 18 -1.</_>
        <_>
          8 15 11 9 2.</_></rects>
      <tilted>0</tilted></_>
    <_>
      <rects>
        <_>
          8 8 10 10 -1.</_>
        <_>
          8 8 5 5 2.</_>
        <_>
          13 13 5 5 2.</_></rects>
      <tilted>0</tilted></_>
    <_>
      <rects>
        <_>
          10 0 4 1 -1.</_>
        <_>
          12 0 2 1 2.</_></rects>
      <tilted>0</tilted></_>
    <_>
      <rects>
        <_>
          10 0 14 4 -1.</_>
        <_>
          10 0 7 2 2.</_>
        <_>
          17 2 7 2 2.</_></rects>
      <tilted>0</tilted></_>
    <_>
      <rects>
        <_>
          10 3 6 6 -1.</_>
        <_>
          12 3 2 6 2.</_></rects>
      <tilted>0</tilted></_>
    <_>
      <rects>
        <_>
          11 15 8 8 -1.</_>
        <_>
          11 19 8 4 2.</_></rects>
      <tilted>0</tilted></_>
    <_>
      <rects>
        <_>
          12 7 4 12 -1.</_>
        <_>
          12 7 2 6 2.</_>
        <_>
          14 13 2 6 2.</_></rects>
      <tilted>0</tilted></_>
    <_>
      <rects>
        <_>
          12 11 11 6 -1.</_>
        <_>
          12 14 11 3 2.</_></rects>
      <tilted>0</tilted></_>
    <_>
      <rects>
        <_>
          12 15 11 4 -1.</_>
        <_>
          12 17 11 2 2.</_></rects>
      <tilted>0</tilted></_>
    <_>
      <rects>
        <_>
          12 20 10 4 -1.</_>
        <_>
          12 20 5 2 2.</_>
        <_>
          17 22 5 2 2.</_></rects>
      <tilted>0</tilted></_>
    <_>
      <rects>
        <_>
          13 0 10 24 -1.</_>
        <_>
          18 0 5 24 2.</_></rects>
      <tilted>0</tilted></_>
    <_>
      <rects>
        <_>
          13 7 6 10 -1.</_>
        <_>
          13 7 3 5 2.</_>
        <_>
          16 12 3 5 2.</_></rects>
      <tilted>0</tilted></_>
    <_>
      <rects>
        <_>
          13 9 7 4 -1.</_>
        <_>
          13 11 7 2 2.</_></rects>
      <tilted>0</tilted></_>
    <_>
      <rects>
        <_>
          13 23 3 1 -1.</_>
        <_>
          14 23 1 1 2.</_></rects>
      <tilted>0</tilted></_>
    <_>
      <rects>
        <_>
          14 11 1 4 -1.</_>
        <_>
          14 13 1 2 2.</_></rects>
      <tilted>0</tilted></_>
    <_>
      <rects>
        <_>
          15 4 6 4 -1.</_>
        <_>
          18 4 3 4 2.</_></rects>
      <tilted>0</tilted></_>
    <_>
      <rects>
        <_>
          15 10 4 4 -1.</_>
        <_>
          15 12 4 2 2.</_></rects>
      <tilted>0</tilted></_>
    <_>
      <rects>
        <_>
          15 16 8 8 -1.</_>
        <_>
          15 16 4 4 2.</_>
        <_>
          19 20 4 4 2.</_></rects>
      <tilted>0</tilted></_>
    <_>
      <rects>
        <_>
          16 1 2 3 -1.</_>
        <_>
          17 1 1 3 2.</_></rects>
      <tilted>0</tilted></_>
    <_>
      <rects>
        <_>
          16 2 2 18 -1.</_>
        <_>
          16 2 1 9 2.</_>
        <_>
          17 11 1 9 2.</_></rects>
      <tilted>0</tilted></_>
    <_>
      <rects>
        <_>
          16 5 4 7 -1.</_>
        <_>
          18 5 2 7 2.</_></rects>
      <tilted>0</tilted></_>
    <_>
      <rects>
        <_>
          16 22 8 2 -1.</_>
        <_>
          16 23 8 1 2.</_></rects>
      <tilted>0</tilted></_>
    <_>
      <rects>
        <_>
          17 0 6 1 -1.</_>
        <_>
          20 0 3 1 2.</_></rects>
      <tilted>0</tilted></_>
    <_>
      <rects>
        <_>
          17 2 2 3 -1.</_>
        <_>
          18 2 1 3 2.</_></rects>
      <tilted>0</tilted></_>
    <_>
      <rects>
        <_>
          17 3 4 4 -1.</_>
        <_>
          17 3 2 2 2.</_>
        <_>
          19 5 2 2 2.</_></rects>
      <tilted>0</tilted></_>
    <_>
      <rects>
        <_>
          17 4 2 4 -1.</_>
        <_>
          18 4 1 4 2.</_></rects>
      <tilted>0</tilted></_>
    <_>
      <rects>
        <_>
          17 16 6 2 -1.</_>
        <_>
          17 17 6 1 2.</_></rects>
      <tilted>0</tilted></_>
    <_>
      <rects>
        <_>
          17 22 2 2 -1.</_>
        <_>
          17 23 2 1 2.</_></rects>
      <tilted>0</tilted></_>
    <_>
      <rects>
        <_>
          18 4 6 20 -1.</_>
        <_>
          18 4 3 10 2.</_>
        <_>
          21 14 3 10 2.</_></rects>
      <tilted>0</tilted></_>
    <_>
      <rects>
        <_>
          18 8 2 1 -1.</_>
        <_>
          19 8 1 1 2.</_></rects>
      <tilted>0</tilted></_>
    <_>
      <rects>
        <_>
          19 2 2 10 -1.</_>
        <_>
          20 2 1 10 2.</_></rects>
      <tilted>0</tilted></_>
    <_>
      <rects>
        <_>
          19 2 4 16 -1.</_>
        <_>
          21 2 2 16 2.</_></rects>
      <tilted>0</tilted></_>
    <_>
      <rects>
        <_>
          19 4 4 4 -1.</_>
        <_>
          21 4 2 4 2.</_></rects>
      <tilted>0</tilted></_>
    <_>
      <rects>
        <_>
          20 2 2 1 -1.</_>
        <_>
          21 2 1 1 2.</_></rects>
      <tilted>0</tilted></_>
    <_>
      <rects>
        <_>
          20 7 4 16 -1.</_>
        <_>
          20 7 2 8 2.</_>
        <_>
          22 15 2 8 2.</_></rects>
      <tilted>0</tilted></_>
    <_>
      <rects>
        <_>
          21 2 3 20 -1.</_>
        <_>
          21 12 3 10 2.</_></rects>
      <tilted>0</tilted></_>
    <_>
      <rects>
        <_>
          21 10 1 3 -1.</_>
        <_>
          21 11 1 1 2.</_></rects>
      <tilted>0</tilted></_>
    <_>
      <rects>
        <_>
          21 12 2 6 -1.</_>
        <_>
          22 12 1 6 2.</_></rects>
      <tilted>0</tilted></_>
    <_>
      <rects>
        <_>
          22 0 2 5 -1.</_>
        <_>
          23 0 1 5 2.</_></rects>
      <tilted>0</tilted></_>
    <_>
      <rects>
        <_>
          22 5 2 17 -1.</_>
        <_>
          23 5 1 17 2.</_></rects>
      <tilted>0</tilted></_></features></cascade>
</opencv_storage>
