<?xml version="1.0"?>
<opencv_storage>
<stage2>
  <maxWeakCount>6</maxWeakCount>
  <stageThreshold>-2.0302245616912842e+00</stageThreshold>
  <weakClassifiers>
    <_>
      <internalNodes>
        0 -1 34361 -3.1370192766189575e-01</internalNodes>
      <leafValues>
        5.2577316761016846e-01 -8.7704128026962280e-01</leafValues></_>
    <_>
      <internalNodes>
        0 -1 50304 4.6858388930559158e-02</internalNodes>
      <leafValues>
        -6.6023492813110352e-01 6.8878030776977539e-01</leafValues></_>
    <_>
      <internalNodes>
        0 -1 48549 -4.6334367245435715e-02</internalNodes>
      <leafValues>
        -9.2854243516921997e-01 2.3779751360416412e-01</leafValues></_>
    <_>
      <internalNodes>
        0 -1 137624 -2.7264424716122448e-04</internalNodes>
      <leafValues>
        3.9404505491256714e-01 -6.2569743394851685e-01</leafValues></_>
    <_>
      <internalNodes>
        0 -1 120527 -6.4494563266634941e-03</internalNodes>
      <leafValues>
        3.6841419339179993e-01 -5.9371107816696167e-01</leafValues></_>
    <_>
      <internalNodes>
        0 -1 153736 -6.7365283030085266e-05</internalNodes>
      <leafValues>
        3.7783008813858032e-01 -5.3107976913452148e-01</leafValues></_></weakClassifiers></stage2>
</opencv_storage>
