<?xml version="1.0"?>
<opencv_storage>
<stage6>
  <maxWeakCount>7</maxWeakCount>
  <stageThreshold>-1.5401519536972046e+00</stageThreshold>
  <weakClassifiers>
    <_>
      <internalNodes>
        0 -1 89648 -2.4311419576406479e-02</internalNodes>
      <leafValues>
        2.0930232107639313e-01 -8.3650189638137817e-01</leafValues></_>
    <_>
      <internalNodes>
        0 -1 148880 -3.3979985164478421e-04</internalNodes>
      <leafValues>
        1.2961377203464508e-01 -7.8952866792678833e-01</leafValues></_>
    <_>
      <internalNodes>
        0 -1 8315 -2.2463658824563026e-02</internalNodes>
      <leafValues>
        3.7731653451919556e-01 -5.2347368001937866e-01</leafValues></_>
    <_>
      <internalNodes>
        0 -1 61454 2.4845018051564693e-03</internalNodes>
      <leafValues>
        -4.7222712635993958e-01 3.4216791391372681e-01</leafValues></_>
    <_>
      <internalNodes>
        0 -1 161566 2.7716457843780518e-03</internalNodes>
      <leafValues>
        -3.2996910810470581e-01 5.0249326229095459e-01</leafValues></_>
    <_>
      <internalNodes>
        0 -1 86435 -4.9315206706523895e-03</internalNodes>
      <leafValues>
        -6.7253053188323975e-01 3.1429651379585266e-01</leafValues></_>
    <_>
      <internalNodes>
        0 -1 143586 6.8651018664240837e-03</internalNodes>
      <leafValues>
        -5.0222641229629517e-01 3.5082647204399109e-01</leafValues></_></weakClassifiers></stage6>
</opencv_storage>
