<?xml version="1.0"?>
<opencv_storage>
<stage5>
  <maxWeakCount>5</maxWeakCount>
  <stageThreshold>-1.2719956636428833e+00</stageThreshold>
  <weakClassifiers>
    <_>
      <internalNodes>
        0 -1 47782 -1.3105013966560364e-01</internalNodes>
      <leafValues>
        4.5614033937454224e-01 -8.9257812500000000e-01</leafValues></_>
    <_>
      <internalNodes>
        0 -1 64727 -1.1817964911460876e-01</internalNodes>
      <leafValues>
        -7.0923477411270142e-02 -9.2957550287246704e-01</leafValues></_>
    <_>
      <internalNodes>
        0 -1 14402 4.8732474446296692e-02</internalNodes>
      <leafValues>
        -4.6570116281509399e-01 4.1299381852149963e-01</leafValues></_>
    <_>
      <internalNodes>
        0 -1 65556 1.0733306407928467e-03</internalNodes>
      <leafValues>
        1.8024671077728271e-01 -9.8793470859527588e-01</leafValues></_>
    <_>
      <internalNodes>
        0 -1 3132 3.2634887611493468e-04</internalNodes>
      <leafValues>
        1.8583756685256958e-01 -9.0173459053039551e-01</leafValues></_></weakClassifiers></stage5>
</opencv_storage>
