<?xml version="1.0"?>
<opencv_storage>
<cascade>
  <stageType>BOOST</stageType>
  <featureType>HAAR</featureType>
  <height>24</height>
  <width>24</width>
  <stageParams>
    <boostType>GAB</boostType>
    <minHitRate>9.9500000476837158e-01</minHitRate>
    <maxFalseAlarm>5.0000000000000000e-01</maxFalseAlarm>
    <weightTrimRate>9.4999999999999996e-01</weightTrimRate>
    <maxDepth>1</maxDepth>
    <maxWeakCount>100</maxWeakCount></stageParams>
  <featureParams>
    <maxCatCount>0</maxCatCount>
    <featSize>1</featSize>
    <mode>BASIC</mode></featureParams>
  <stageNum>10</stageNum>
  <stages>
    <!-- stage 0 -->
    <_>
      <maxWeakCount>3</maxWeakCount>
      <stageThreshold>-5.0016999244689941e-01</stageThreshold>
      <weakClassifiers>
        <_>
          <internalNodes>
            0 -1 12 -4.2616018652915955e-01</internalNodes>
          <leafValues>
            -7.9411762952804565e-01 8.8489210605621338e-01</leafValues></_>
        <_>
          <internalNodes>
            0 -1 30 3.5687738563865423e-03</internalNodes>
          <leafValues>
            -5.0387662649154663e-01 9.2080914974212646e-01</leafValues></_>
        <_>
          <internalNodes>
            0 -1 6 -8.5321687161922455e-02</internalNodes>
          <leafValues>
            -6.2686151266098022e-01 8.3845353126525879e-01</leafValues></_></weakClassifiers></_>
    <!-- stage 1 -->
    <_>
      <maxWeakCount>3</maxWeakCount>
      <stageThreshold>-5.2650564908981323e-01</stageThreshold>
      <weakClassifiers>
        <_>
          <internalNodes>
            0 -1 20 -1.1345190927386284e-02</internalNodes>
          <leafValues>
            -8.5714286565780640e-01 9.4160586595535278e-01</leafValues></_>
        <_>
          <internalNodes>
            0 -1 10 -2.5902085006237030e-02</internalNodes>
          <leafValues>
            -6.1007302999496460e-01 8.7103813886642456e-01</leafValues></_>
        <_>
          <internalNodes>
            0 -1 0 -1.8693458288908005e-02</internalNodes>
          <leafValues>
            9.4071024656295776e-01 -5.3132748603820801e-01</leafValues></_></weakClassifiers></_>
    <!-- stage 2 -->
    <_>
      <maxWeakCount>3</maxWeakCount>
      <stageThreshold>-4.0704637765884399e-01</stageThreshold>
      <weakClassifiers>
        <_>
          <internalNodes>
            0 -1 13 -2.6441207528114319e-01</internalNodes>
          <leafValues>
            -6.4864861965179443e-01 8.7969923019409180e-01</leafValues></_>
        <_>
          <internalNodes>
            0 -1 25 -1.7266448121517897e-03</internalNodes>
          <leafValues>
            7.8071540594100952e-01 -6.0861057043075562e-01</leafValues></_>
        <_>
          <internalNodes>
            0 -1 1 -7.6506743207573891e-03</internalNodes>
          <leafValues>
            8.7381100654602051e-01 -5.3911310434341431e-01</leafValues></_></weakClassifiers></_>
    <!-- stage 3 -->
    <_>
      <maxWeakCount>3</maxWeakCount>
      <stageThreshold>-5.1213926076889038e-01</stageThreshold>
      <weakClassifiers>
        <_>
          <internalNodes>
            0 -1 18 -9.1216936707496643e-03</internalNodes>
          <leafValues>
            -5.8536583185195923e-01 9.3599998950958252e-01</leafValues></_>
        <_>
          <internalNodes>
            0 -1 31 -2.0362939685583115e-03</internalNodes>
          <leafValues>
            7.6146203279495239e-01 -6.4130896329879761e-01</leafValues></_>
        <_>
          <internalNodes>
            0 -1 9 2.0662348251789808e-03</internalNodes>
          <leafValues>
            -6.8823546171188354e-01 7.4166047573089600e-01</leafValues></_></weakClassifiers></_>
    <!-- stage 4 -->
    <_>
      <maxWeakCount>4</maxWeakCount>
      <stageThreshold>-1.0237632989883423e+00</stageThreshold>
      <weakClassifiers>
        <_>
          <internalNodes>
            0 -1 28 -6.7454029340296984e-04</internalNodes>
          <leafValues>
            8.0740737915039063e-01 -5.5555558204650879e-01</leafValues></_>
        <_>
          <internalNodes>
            0 -1 14 -9.0651139616966248e-03</internalNodes>
          <leafValues>
            -5.5634897947311401e-01 7.3779720067977905e-01</leafValues></_>
        <_>
          <internalNodes>
            0 -1 11 -2.5961431674659252e-03</internalNodes>
          <leafValues>
            6.5643942356109619e-01 -6.8861633539199829e-01</leafValues></_>
        <_>
          <internalNodes>
            0 -1 3 1.2703909305855632e-03</internalNodes>
          <leafValues>
            -5.6829822063446045e-01 7.6765108108520508e-01</leafValues></_></weakClassifiers></_>
    <!-- stage 5 -->
    <_>
      <maxWeakCount>4</maxWeakCount>
      <stageThreshold>-1.3246868550777435e-01</stageThreshold>
      <weakClassifiers>
        <_>
          <internalNodes>
            0 -1 24 -3.5932771861553192e-02</internalNodes>
          <leafValues>
            -5.5555558204650879e-01 8.0740737915039063e-01</leafValues></_>
        <_>
          <internalNodes>
            0 -1 29 -2.3432574234902859e-03</internalNodes>
          <leafValues>
            7.4385547637939453e-01 -5.2070987224578857e-01</leafValues></_>
        <_>
          <internalNodes>
            0 -1 15 6.0924342833459377e-03</internalNodes>
          <leafValues>
            4.5871004462242126e-01 -7.9901415109634399e-01</leafValues></_>
        <_>
          <internalNodes>
            0 -1 34 -2.2718362743034959e-04</internalNodes>
          <leafValues>
            -7.2782611846923828e-01 4.8508667945861816e-01</leafValues></_></weakClassifiers></_>
    <!-- stage 6 -->
    <_>
      <maxWeakCount>3</maxWeakCount>
      <stageThreshold>-9.6934616565704346e-02</stageThreshold>
      <weakClassifiers>
        <_>
          <internalNodes>
            0 -1 2 1.3490353012457490e-03</internalNodes>
          <leafValues>
            -3.6734694242477417e-01 9.6330273151397705e-01</leafValues></_>
        <_>
          <internalNodes>
            0 -1 16 -1.5677018091082573e-02</internalNodes>
          <leafValues>
            -4.0218427777290344e-01 8.8042771816253662e-01</leafValues></_>
        <_>
          <internalNodes>
            0 -1 26 -1.4846953563392162e-03</internalNodes>
          <leafValues>
            6.7259657382965088e-01 -5.2841526269912720e-01</leafValues></_></weakClassifiers></_>
    <!-- stage 7 -->
    <_>
      <maxWeakCount>3</maxWeakCount>
      <stageThreshold>-2.2258031368255615e-01</stageThreshold>
      <weakClassifiers>
        <_>
          <internalNodes>
            0 -1 35 -3.6711671855300665e-03</internalNodes>
          <leafValues>
            8.0000001192092896e-01 -4.5454546809196472e-01</leafValues></_>
        <_>
          <internalNodes>
            0 -1 22 -3.5272893728688359e-04</internalNodes>
          <leafValues>
            7.4104231595993042e-01 -4.3583357334136963e-01</leafValues></_>
        <_>
          <internalNodes>
            0 -1 27 4.7668721526861191e-03</internalNodes>
          <leafValues>
            -5.0907719135284424e-01 7.2224497795104980e-01</leafValues></_></weakClassifiers></_>
    <!-- stage 8 -->
    <_>
      <maxWeakCount>5</maxWeakCount>
      <stageThreshold>-5.3554999828338623e-01</stageThreshold>
      <weakClassifiers>
        <_>
          <internalNodes>
            0 -1 33 -3.4840661101043224e-04</internalNodes>
          <leafValues>
            7.8947371244430542e-01 -4.8648649454116821e-01</leafValues></_>
        <_>
          <internalNodes>
            0 -1 19 -2.8944648802280426e-02</internalNodes>
          <leafValues>
            6.4135324954986572e-01 -5.1683020591735840e-01</leafValues></_>
        <_>
          <internalNodes>
            0 -1 5 3.6001375410705805e-03</internalNodes>
          <leafValues>
            -4.8694753646850586e-01 7.1539860963821411e-01</leafValues></_>
        <_>
          <internalNodes>
            0 -1 23 -4.4425012310966849e-04</internalNodes>
          <leafValues>
            5.7758659124374390e-01 -5.1215934753417969e-01</leafValues></_>
        <_>
          <internalNodes>
            0 -1 7 -2.2895991802215576e-02</internalNodes>
          <leafValues>
            -8.9165353775024414e-01 3.7712764739990234e-01</leafValues></_></weakClassifiers></_>
    <!-- stage 9 -->
    <_>
      <maxWeakCount>5</maxWeakCount>
      <stageThreshold>-1.8758560717105865e-01</stageThreshold>
      <weakClassifiers>
        <_>
          <internalNodes>
            0 -1 32 -3.4698691219091415e-02</internalNodes>
          <leafValues>
            8.3193278312683105e-01 -3.4090909361839294e-01</leafValues></_>
        <_>
          <internalNodes>
            0 -1 21 -5.1536224782466888e-03</internalNodes>
          <leafValues>
            -9.2173326015472412e-01 4.5109847187995911e-01</leafValues></_>
        <_>
          <internalNodes>
            0 -1 8 -3.6011014133691788e-02</internalNodes>
          <leafValues>
            8.5199314355850220e-01 -4.0516194701194763e-01</leafValues></_>
        <_>
          <internalNodes>
            0 -1 4 6.9753412390127778e-05</internalNodes>
          <leafValues>
            -3.7709349393844604e-01 6.9491207599639893e-01</leafValues></_>
        <_>
          <internalNodes>
            0 -1 17 -2.4240273342002183e-04</internalNodes>
          <leafValues>
            6.8447029590606689e-01 -4.4767770171165466e-01</leafValues></_></weakClassifiers></_></stages>
  <features>
    <_>
      <rects>
        <_>
          0 10 6 14 -1.</_>
        <_>
          0 10 3 7 2.</_>
        <_>
          3 17 3 7 2.</_></rects>
      <tilted>0</tilted></_>
    <_>
      <rects>
        <_>
          0 16 10 8 -1.</_>
        <_>
          0 16 5 4 2.</_>
        <_>
          5 20 5 4 2.</_></rects>
      <tilted>0</tilted></_>
    <_>
      <rects>
        <_>
          1 1 12 2 -1.</_>
        <_>
          1 2 12 1 2.</_></rects>
      <tilted>0</tilted></_>
    <_>
      <rects>
        <_>
          1 4 10 1 -1.</_>
        <_>
          6 4 5 1 2.</_></rects>
      <tilted>0</tilted></_>
    <_>
      <rects>
        <_>
          2 22 1 2 -1.</_>
        <_>
          2 23 1 1 2.</_></rects>
      <tilted>0</tilted></_>
    <_>
      <rects>
        <_>
          3 1 8 4 -1.</_>
        <_>
          3 3 8 2 2.</_></rects>
      <tilted>0</tilted></_>
    <_>
      <rects>
        <_>
          3 9 3 8 -1.</_>
        <_>
          4 9 1 8 2.</_></rects>
      <tilted>0</tilted></_>
    <_>
      <rects>
        <_>
          4 5 12 12 -1.</_>
        <_>
          4 5 6 6 2.</_>
        <_>
          10 11 6 6 2.</_></rects>
      <tilted>0</tilted></_>
    <_>
      <rects>
        <_>
          4 16 7 8 -1.</_>
        <_>
          4 20 7 4 2.</_></rects>
      <tilted>0</tilted></_>
    <_>
      <rects>
        <_>
          5 1 4 10 -1.</_>
        <_>
          7 1 2 10 2.</_></rects>
      <tilted>0</tilted></_>
    <_>
      <rects>
        <_>
          5 3 1 6 -1.</_>
        <_>
          5 5 1 2 2.</_></rects>
      <tilted>0</tilted></_>
    <_>
      <rects>
        <_>
          5 7 2 12 -1.</_>
        <_>
          5 13 2 6 2.</_></rects>
      <tilted>0</tilted></_>
    <_>
      <rects>
        <_>
          5 14 15 8 -1.</_>
        <_>
          10 14 5 8 2.</_></rects>
      <tilted>0</tilted></_>
    <_>
      <rects>
        <_>
          5 17 14 6 -1.</_>
        <_>
          5 19 14 2 2.</_></rects>
      <tilted>0</tilted></_>
    <_>
      <rects>
        <_>
          5 20 3 1 -1.</_>
        <_>
          6 20 1 1 2.</_></rects>
      <tilted>0</tilted></_>
    <_>
      <rects>
        <_>
          7 2 4 18 -1.</_>
        <_>
          7 2 2 9 2.</_>
        <_>
          9 11 2 9 2.</_></rects>
      <tilted>0</tilted></_>
    <_>
      <rects>
        <_>
          8 22 3 2 -1.</_>
        <_>
          9 22 1 2 2.</_></rects>
      <tilted>0</tilted></_>
    <_>
      <rects>
        <_>
          9 1 2 6 -1.</_>
        <_>
          9 1 1 3 2.</_>
        <_>
          10 4 1 3 2.</_></rects>
      <tilted>0</tilted></_>
    <_>
      <rects>
        <_>
          9 23 3 1 -1.</_>
        <_>
          10 23 1 1 2.</_></rects>
      <tilted>0</tilted></_>
    <_>
      <rects>
        <_>
          10 4 3 20 -1.</_>
        <_>
          10 14 3 10 2.</_></rects>
      <tilted>0</tilted></_>
    <_>
      <rects>
        <_>
          10 20 1 3 -1.</_>
        <_>
          10 21 1 1 2.</_></rects>
      <tilted>0</tilted></_>
    <_>
      <rects>
        <_>
          12 0 4 12 -1.</_>
        <_>
          12 0 2 6 2.</_>
        <_>
          14 6 2 6 2.</_></rects>
      <tilted>0</tilted></_>
    <_>
      <rects>
        <_>
          12 1 4 4 -1.</_>
        <_>
          14 1 2 4 2.</_></rects>
      <tilted>0</tilted></_>
    <_>
      <rects>
        <_>
          13 11 2 4 -1.</_>
        <_>
          13 13 2 2 2.</_></rects>
      <tilted>0</tilted></_>
    <_>
      <rects>
        <_>
          13 20 6 2 -1.</_>
        <_>
          15 20 2 2 2.</_></rects>
      <tilted>0</tilted></_>
    <_>
      <rects>
        <_>
          14 6 8 2 -1.</_>
        <_>
          18 6 4 2 2.</_></rects>
      <tilted>0</tilted></_>
    <_>
      <rects>
        <_>
          14 10 5 4 -1.</_>
        <_>
          14 12 5 2 2.</_></rects>
      <tilted>0</tilted></_>
    <_>
      <rects>
        <_>
          14 21 10 3 -1.</_>
        <_>
          19 21 5 3 2.</_></rects>
      <tilted>0</tilted></_>
    <_>
      <rects>
        <_>
          15 1 4 3 -1.</_>
        <_>
          17 1 2 3 2.</_></rects>
      <tilted>0</tilted></_>
    <_>
      <rects>
        <_>
          15 16 4 6 -1.</_>
        <_>
          15 19 4 3 2.</_></rects>
      <tilted>0</tilted></_>
    <_>
      <rects>
        <_>
          16 0 5 8 -1.</_>
        <_>
          16 4 5 4 2.</_></rects>
      <tilted>0</tilted></_>
    <_>
      <rects>
        <_>
          16 4 4 9 -1.</_>
        <_>
          18 4 2 9 2.</_></rects>
      <tilted>0</tilted></_>
    <_>
      <rects>
        <_>
          16 9 8 12 -1.</_>
        <_>
          16 15 8 6 2.</_></rects>
      <tilted>0</tilted></_>
    <_>
      <rects>
        <_>
          17 2 2 3 -1.</_>
        <_>
          18 2 1 3 2.</_></rects>
      <tilted>0</tilted></_>
    <_>
      <rects>
        <_>
          17 22 4 2 -1.</_>
        <_>
          17 23 4 1 2.</_></rects>
      <tilted>0</tilted></_>
    <_>
      <rects>
        <_>
          18 3 4 9 -1.</_>
        <_>
          20 3 2 9 2.</_></rects>
      <tilted>0</tilted></_></features></cascade>
</opencv_storage>
